<?xml version="1.0"?>
<opencv_storage>
<cascade>
  <stageType>BOOST</stageType>
  <featureType>HAAR</featureType>
  <height>40</height>
  <width>100</width>
  <stageParams>
    <boostType>GAB</boostType>
    <minHitRate>9.9500000476837158e-01</minHitRate>
    <maxFalseAlarm>5.0000000000000000e-01</maxFalseAlarm>
    <weightTrimRate>9.4999999999999996e-01</weightTrimRate>
    <maxDepth>1</maxDepth>
    <maxWeakCount>100</maxWeakCount></stageParams>
  <featureParams>
    <maxCatCount>0</maxCatCount>
    <featSize>1</featSize>
    <mode>BASIC</mode></featureParams>
  <stageNum>4</stageNum>
  <stages>
    <!-- stage 0 -->
    <_>
      <maxWeakCount>2</maxWeakCount>
      <stageThreshold>-1.8009957671165466e-01</stageThreshold>
      <weakClassifiers>
        <_>
          <internalNodes>
            0 -1 3 2.1681100130081177e-02</internalNodes>
          <leafValues>
            -8.6973178386688232e-01 6.5799254179000854e-01</leafValues></_>
        <_>
          <internalNodes>
            0 -1 5 -4.5604109764099121e-03</internalNodes>
          <leafValues>
            6.8963223695755005e-01 -6.8542921543121338e-01</leafValues></_></weakClassifiers></_>
    <!-- stage 1 -->
    <_>
      <maxWeakCount>3</maxWeakCount>
      <stageThreshold>-7.6529502868652344e-01</stageThreshold>
      <weakClassifiers>
        <_>
          <internalNodes>
            0 -1 13 3.4220770467072725e-03</internalNodes>
          <leafValues>
            -7.6760566234588623e-01 6.8292683362960815e-01</leafValues></_>
        <_>
          <internalNodes>
            0 -1 7 -6.1947293579578400e-03</internalNodes>
          <leafValues>
            7.8200131654739380e-01 -5.7233822345733643e-01</leafValues></_>
        <_>
          <internalNodes>
            0 -1 1 -2.9862455558031797e-03</internalNodes>
          <leafValues>
            5.7464885711669922e-01 -6.7103183269500732e-01</leafValues></_></weakClassifiers></_>
    <!-- stage 2 -->
    <_>
      <maxWeakCount>4</maxWeakCount>
      <stageThreshold>-9.1416466236114502e-01</stageThreshold>
      <weakClassifiers>
        <_>
          <internalNodes>
            0 -1 12 -1.1148674413561821e-02</internalNodes>
          <leafValues>
            8.8571429252624512e-01 -5.7746475934982300e-01</leafValues></_>
        <_>
          <internalNodes>
            0 -1 11 6.6114999353885651e-03</internalNodes>
          <leafValues>
            -7.1852308511734009e-01 5.7678759098052979e-01</leafValues></_>
        <_>
          <internalNodes>
            0 -1 2 -1.1619022116065025e-02</internalNodes>
          <leafValues>
            8.4648847579956055e-01 -4.7921988368034363e-01</leafValues></_>
        <_>
          <internalNodes>
            0 -1 4 2.2751912474632263e-02</internalNodes>
          <leafValues>
            -4.2992353439331055e-01 8.6104315519332886e-01</leafValues></_></weakClassifiers></_>
    <!-- stage 3 -->
    <_>
      <maxWeakCount>5</maxWeakCount>
      <stageThreshold>-4.0276613831520081e-01</stageThreshold>
      <weakClassifiers>
        <_>
          <internalNodes>
            0 -1 9 -2.5405744090676308e-02</internalNodes>
          <leafValues>
            8.0099505186080933e-01 -6.4133739471435547e-01</leafValues></_>
        <_>
          <internalNodes>
            0 -1 6 -1.7752957064658403e-03</internalNodes>
          <leafValues>
            8.1041157245635986e-01 -6.0223829746246338e-01</leafValues></_>
        <_>
          <internalNodes>
            0 -1 8 5.8033887762576342e-04</internalNodes>
          <leafValues>
            6.4153563976287842e-01 -7.7787190675735474e-01</leafValues></_>
        <_>
          <internalNodes>
            0 -1 0 -1.6216460615396500e-02</internalNodes>
          <leafValues>
            7.8413605690002441e-01 -6.3913398981094360e-01</leafValues></_>
        <_>
          <internalNodes>
            0 -1 10 -5.9561519883573055e-03</internalNodes>
          <leafValues>
            8.3840787410736084e-01 -5.2351915836334229e-01</leafValues></_></weakClassifiers></_></stages>
  <features>
    <_>
      <rects>
        <_>
          0 8 26 28 -1.</_>
        <_>
          0 8 13 14 2.</_>
        <_>
          13 22 13 14 2.</_></rects>
      <tilted>0</tilted></_>
    <_>
      <rects>
        <_>
          0 31 24 5 -1.</_>
        <_>
          12 31 12 5 2.</_></rects>
      <tilted>0</tilted></_>
    <_>
      <rects>
        <_>
          2 25 14 12 -1.</_>
        <_>
          9 25 7 12 2.</_></rects>
      <tilted>0</tilted></_>
    <_>
      <rects>
        <_>
          8 32 64 8 -1.</_>
        <_>
          8 36 64 4 2.</_></rects>
      <tilted>0</tilted></_>
    <_>
      <rects>
        <_>
          18 13 24 18 -1.</_>
        <_>
          18 19 24 6 3.</_></rects>
      <tilted>0</tilted></_>
    <_>
      <rects>
        <_>
          20 25 22 8 -1.</_>
        <_>
          20 25 11 4 2.</_>
        <_>
          31 29 11 4 2.</_></rects>
      <tilted>0</tilted></_>
    <_>
      <rects>
        <_>
          21 30 21 4 -1.</_>
        <_>
          28 30 7 4 3.</_></rects>
      <tilted>0</tilted></_>
    <_>
      <rects>
        <_>
          24 18 8 10 -1.</_>
        <_>
          24 23 8 5 2.</_></rects>
      <tilted>0</tilted></_>
    <_>
      <rects>
        <_>
          39 23 6 9 -1.</_>
        <_>
          42 23 3 9 2.</_></rects>
      <tilted>0</tilted></_>
    <_>
      <rects>
        <_>
          58 19 29 12 -1.</_>
        <_>
          58 25 29 6 2.</_></rects>
      <tilted>0</tilted></_>
    <_>
      <rects>
        <_>
          63 30 12 9 -1.</_>
        <_>
          63 33 12 3 3.</_></rects>
      <tilted>0</tilted></_>
    <_>
      <rects>
        <_>
          68 27 32 10 -1.</_>
        <_>
          84 27 16 10 2.</_></rects>
      <tilted>0</tilted></_>
    <_>
      <rects>
        <_>
          69 21 11 12 -1.</_>
        <_>
          69 25 11 4 3.</_></rects>
      <tilted>0</tilted></_>
    <_>
      <rects>
        <_>
          80 30 18 8 -1.</_>
        <_>
          89 30 9 8 2.</_></rects>
      <tilted>0</tilted></_></features></cascade>
</opencv_storage>
