<?xml version="1.0"?>
<opencv_storage>
<stage3>
  <maxWeakCount>5</maxWeakCount>
  <stageThreshold>-4.0276613831520081e-01</stageThreshold>
  <weakClassifiers>
    <_>
      <internalNodes>
        0 -1 6414956 -2.5405744090676308e-02</internalNodes>
      <leafValues>
        8.0099505186080933e-01 -6.4133739471435547e-01</leafValues></_>
    <_>
      <internalNodes>
        0 -1 3018605 -1.7752957064658403e-03</internalNodes>
      <leafValues>
        8.1041157245635986e-01 -6.0223829746246338e-01</leafValues></_>
    <_>
      <internalNodes>
        0 -1 4929600 5.8033887762576342e-04</internalNodes>
      <leafValues>
        6.4153563976287842e-01 -7.7787190675735474e-01</leafValues></_>
    <_>
      <internalNodes>
        0 -1 56673 -1.6216460615396500e-02</internalNodes>
      <leafValues>
        7.8413605690002441e-01 -6.3913398981094360e-01</leafValues></_>
    <_>
      <internalNodes>
        0 -1 6725756 -5.9561519883573055e-03</internalNodes>
      <leafValues>
        8.3840787410736084e-01 -5.2351915836334229e-01</leafValues></_></weakClassifiers></stage3>
</opencv_storage>
